digraph Tree {
node [shape=box] ;
0 [label="女性 <= 0.5\ngini = 0.446\nsamples = 984\nvalue = [653, 331]"] ;
1 [label="年龄 <= 12.0\ngini = 0.281\nsamples = 645\nvalue = [536, 109]"] ;
0 -> 1 [labeldistance=2.5, labelangle=45, headlabel="True"] ;
2 [label="pclass=3rd <= 0.5\ngini = 0.351\nsamples = 22\nvalue = [5, 17]"] ;
1 -> 2 ;
3 [label="gini = 0.0\nsamples = 15\nvalue = [0, 15]"] ;
2 -> 3 ;
4 [label="年龄 <= 2.417\ngini = 0.408\nsamples = 7\nvalue = [5, 2]"] ;
2 -> 4 ;
5 [label="gini = 0.0\nsamples = 1\nvalue = [0, 1]"] ;
4 -> 5 ;
6 [label="年龄 <= 7.5\ngini = 0.278\nsamples = 6\nvalue = [5, 1]"] ;
4 -> 6 ;
7 [label="gini = 0.0\nsamples = 4\nvalue = [4, 0]"] ;
6 -> 7 ;
8 [label="年龄 <= 10.0\ngini = 0.5\nsamples = 2\nvalue = [1, 1]"] ;
6 -> 8 ;
9 [label="gini = 0.0\nsamples = 1\nvalue = [0, 1]"] ;
8 -> 9 ;
10 [label="gini = 0.0\nsamples = 1\nvalue = [1, 0]"] ;
8 -> 10 ;
11 [label="pclass=1st <= 0.5\ngini = 0.252\nsamples = 623\nvalue = [531, 92]"] ;
1 -> 11 ;
12 [label="年龄 <= 19.5\ngini = 0.173\nsamples = 490\nvalue = [443, 47]"] ;
11 -> 12 ;
13 [label="gini = 0.0\nsamples = 25\nvalue = [25, 0]"] ;
12 -> 13 ;
14 [label="年龄 <= 46.0\ngini = 0.182\nsamples = 465\nvalue = [418, 47]"] ;
12 -> 14 ;
15 [label="年龄 <= 20.5\ngini = 0.187\nsamples = 451\nvalue = [404, 47]"] ;
14 -> 15 ;
16 [label="pclass=3rd <= 0.5\ngini = 0.346\nsamples = 9\nvalue = [7, 2]"] ;
15 -> 16 ;
17 [label="gini = 0.444\nsamples = 3\nvalue = [2, 1]"] ;
16 -> 17 ;
18 [label="gini = 0.278\nsamples = 6\nvalue = [5, 1]"] ;
16 -> 18 ;
19 [label="年龄 <= 44.5\ngini = 0.183\nsamples = 442\nvalue = [397, 45]"] ;
15 -> 19 ;
20 [label="年龄 <= 36.5\ngini = 0.181\nsamples = 438\nvalue = [394, 44]"] ;
19 -> 20 ;
21 [label="年龄 <= 35.5\ngini = 0.186\nsamples = 415\nvalue = [372, 43]"] ;
20 -> 21 ;
22 [label="年龄 <= 31.597\ngini = 0.183\nsamples = 413\nvalue = [371, 42]"] ;
21 -> 22 ;
23 [label="年龄 <= 29.5\ngini = 0.175\nsamples = 391\nvalue = [353, 38]"] ;
22 -> 23 ;
24 [label="年龄 <= 25.5\ngini = 0.131\nsamples = 71\nvalue = [66, 5]"] ;
23 -> 24 ;
25 [label="年龄 <= 23.5\ngini = 0.198\nsamples = 45\nvalue = [40, 5]"] ;
24 -> 25 ;
26 [label="年龄 <= 22.5\ngini = 0.153\nsamples = 24\nvalue = [22, 2]"] ;
25 -> 26 ;
27 [label="年龄 <= 21.5\ngini = 0.188\nsamples = 19\nvalue = [17, 2]"] ;
26 -> 27 ;
28 [label="pclass=3rd <= 0.5\ngini = 0.18\nsamples = 10\nvalue = [9, 1]"] ;
27 -> 28 ;
29 [label="gini = 0.0\nsamples = 6\nvalue = [6, 0]"] ;
28 -> 29 ;
30 [label="gini = 0.375\nsamples = 4\nvalue = [3, 1]"] ;
28 -> 30 ;
31 [label="pclass=3rd <= 0.5\ngini = 0.198\nsamples = 9\nvalue = [8, 1]"] ;
27 -> 31 ;
32 [label="gini = 0.375\nsamples = 4\nvalue = [3, 1]"] ;
31 -> 32 ;
33 [label="gini = 0.0\nsamples = 5\nvalue = [5, 0]"] ;
31 -> 33 ;
34 [label="gini = 0.0\nsamples = 5\nvalue = [5, 0]"] ;
26 -> 34 ;
35 [label="年龄 <= 24.5\ngini = 0.245\nsamples = 21\nvalue = [18, 3]"] ;
25 -> 35 ;
36 [label="pclass=3rd <= 0.5\ngini = 0.298\nsamples = 11\nvalue = [9, 2]"] ;
35 -> 36 ;
37 [label="gini = 0.444\nsamples = 3\nvalue = [2, 1]"] ;
36 -> 37 ;
38 [label="gini = 0.219\nsamples = 8\nvalue = [7, 1]"] ;
36 -> 38 ;
39 [label="pclass=2nd <= 0.5\ngini = 0.18\nsamples = 10\nvalue = [9, 1]"] ;
35 -> 39 ;
40 [label="gini = 0.32\nsamples = 5\nvalue = [4, 1]"] ;
39 -> 40 ;
41 [label="gini = 0.0\nsamples = 5\nvalue = [5, 0]"] ;
39 -> 41 ;
42 [label="gini = 0.0\nsamples = 26\nvalue = [26, 0]"] ;
24 -> 42 ;
43 [label="年龄 <= 30.5\ngini = 0.185\nsamples = 320\nvalue = [287, 33]"] ;
23 -> 43 ;
44 [label="pclass=3rd <= 0.5\ngini = 0.298\nsamples = 11\nvalue = [9, 2]"] ;
43 -> 44 ;
45 [label="gini = 0.245\nsamples = 7\nvalue = [6, 1]"] ;
44 -> 45 ;
46 [label="gini = 0.375\nsamples = 4\nvalue = [3, 1]"] ;
44 -> 46 ;
47 [label="pclass=2nd <= 0.5\ngini = 0.181\nsamples = 309\nvalue = [278, 31]"] ;
43 -> 47 ;
48 [label="年龄 <= 31.097\ngini = 0.186\nsamples = 280\nvalue = [251, 29]"] ;
47 -> 48 ;
49 [label="gini = 0.0\nsamples = 2\nvalue = [2, 0]"] ;
48 -> 49 ;
50 [label="gini = 0.187\nsamples = 278\nvalue = [249, 29]"] ;
48 -> 50 ;
51 [label="年龄 <= 31.097\ngini = 0.128\nsamples = 29\nvalue = [27, 2]"] ;
47 -> 51 ;
52 [label="gini = 0.0\nsamples = 1\nvalue = [1, 0]"] ;
51 -> 52 ;
53 [label="gini = 0.133\nsamples = 28\nvalue = [26, 2]"] ;
51 -> 53 ;
54 [label="年龄 <= 32.5\ngini = 0.298\nsamples = 22\nvalue = [18, 4]"] ;
22 -> 54 ;
55 [label="pclass=3rd <= 0.5\ngini = 0.469\nsamples = 8\nvalue = [5, 3]"] ;
54 -> 55 ;
56 [label="gini = 0.48\nsamples = 5\nvalue = [3, 2]"] ;
55 -> 56 ;
57 [label="gini = 0.444\nsamples = 3\nvalue = [2, 1]"] ;
55 -> 57 ;
58 [label="年龄 <= 34.5\ngini = 0.133\nsamples = 14\nvalue = [13, 1]"] ;
54 -> 58 ;
59 [label="pclass=3rd <= 0.5\ngini = 0.198\nsamples = 9\nvalue = [8, 1]"] ;
58 -> 59 ;
60 [label="gini = 0.245\nsamples = 7\nvalue = [6, 1]"] ;
59 -> 60 ;
61 [label="gini = 0.0\nsamples = 2\nvalue = [2, 0]"] ;
59 -> 61 ;
62 [label="gini = 0.0\nsamples = 5\nvalue = [5, 0]"] ;
58 -> 62 ;
63 [label="pclass=2nd <= 0.5\ngini = 0.5\nsamples = 2\nvalue = [1, 1]"] ;
21 -> 63 ;
64 [label="gini = 0.0\nsamples = 1\nvalue = [0, 1]"] ;
63 -> 64 ;
65 [label="gini = 0.0\nsamples = 1\nvalue = [1, 0]"] ;
63 -> 65 ;
66 [label="pclass=3rd <= 0.5\ngini = 0.083\nsamples = 23\nvalue = [22, 1]"] ;
20 -> 66 ;
67 [label="年龄 <= 40.5\ngini = 0.245\nsamples = 7\nvalue = [6, 1]"] ;
66 -> 67 ;
68 [label="gini = 0.0\nsamples = 3\nvalue = [3, 0]"] ;
67 -> 68 ;
69 [label="年龄 <= 41.5\ngini = 0.375\nsamples = 4\nvalue = [3, 1]"] ;
67 -> 69 ;
70 [label="gini = 0.5\nsamples = 2\nvalue = [1, 1]"] ;
69 -> 70 ;
71 [label="gini = 0.0\nsamples = 2\nvalue = [2, 0]"] ;
69 -> 71 ;
72 [label="gini = 0.0\nsamples = 16\nvalue = [16, 0]"] ;
66 -> 72 ;
73 [label="pclass=3rd <= 0.5\ngini = 0.375\nsamples = 4\nvalue = [3, 1]"] ;
19 -> 73 ;
74 [label="gini = 0.0\nsamples = 3\nvalue = [3, 0]"] ;
73 -> 74 ;
75 [label="gini = 0.0\nsamples = 1\nvalue = [0, 1]"] ;
73 -> 75 ;
76 [label="gini = 0.0\nsamples = 14\nvalue = [14, 0]"] ;
14 -> 76 ;
77 [label="年龄 <= 54.5\ngini = 0.448\nsamples = 133\nvalue = [88, 45]"] ;
11 -> 77 ;
78 [label="年龄 <= 47.5\ngini = 0.474\nsamples = 114\nvalue = [70, 44]"] ;
77 -> 78 ;
79 [label="年龄 <= 45.5\ngini = 0.459\nsamples = 101\nvalue = [65, 36]"] ;
78 -> 79 ;
80 [label="年龄 <= 15.5\ngini = 0.475\nsamples = 93\nvalue = [57, 36]"] ;
79 -> 80 ;
81 [label="gini = 0.0\nsamples = 1\nvalue = [0, 1]"] ;
80 -> 81 ;
82 [label="年龄 <= 20.0\ngini = 0.471\nsamples = 92\nvalue = [57, 35]"] ;
80 -> 82 ;
83 [label="gini = 0.0\nsamples = 2\nvalue = [2, 0]"] ;
82 -> 83 ;
84 [label="年龄 <= 21.5\ngini = 0.475\nsamples = 90\nvalue = [55, 35]"] ;
82 -> 84 ;
85 [label="gini = 0.0\nsamples = 1\nvalue = [0, 1]"] ;
84 -> 85 ;
86 [label="年龄 <= 38.5\ngini = 0.472\nsamples = 89\nvalue = [55, 34]"] ;
84 -> 86 ;
87 [label="年龄 <= 33.5\ngini = 0.481\nsamples = 77\nvalue = [46, 31]"] ;
86 -> 87 ;
88 [label="年龄 <= 28.5\ngini = 0.466\nsamples = 65\nvalue = [41, 24]"] ;
87 -> 88 ;
89 [label="年龄 <= 22.5\ngini = 0.5\nsamples = 14\nvalue = [7, 7]"] ;
88 -> 89 ;
90 [label="gini = 0.0\nsamples = 1\nvalue = [1, 0]"] ;
89 -> 90 ;
91 [label="年龄 <= 23.5\ngini = 0.497\nsamples = 13\nvalue = [6, 7]"] ;
89 -> 91 ;
92 [label="gini = 0.0\nsamples = 1\nvalue = [0, 1]"] ;
91 -> 92 ;
93 [label="年龄 <= 24.5\ngini = 0.5\nsamples = 12\nvalue = [6, 6]"] ;
91 -> 93 ;
94 [label="gini = 0.444\nsamples = 3\nvalue = [2, 1]"] ;
93 -> 94 ;
95 [label="年龄 <= 26.0\ngini = 0.494\nsamples = 9\nvalue = [4, 5]"] ;
93 -> 95 ;
96 [label="gini = 0.444\nsamples = 3\nvalue = [1, 2]"] ;
95 -> 96 ;
97 [label="年龄 <= 27.5\ngini = 0.5\nsamples = 6\nvalue = [3, 3]"] ;
95 -> 97 ;
98 [label="gini = 0.5\nsamples = 2\nvalue = [1, 1]"] ;
97 -> 98 ;
99 [label="gini = 0.5\nsamples = 4\nvalue = [2, 2]"] ;
97 -> 99 ;
100 [label="年龄 <= 30.5\ngini = 0.444\nsamples = 51\nvalue = [34, 17]"] ;
88 -> 100 ;
101 [label="gini = 0.0\nsamples = 3\nvalue = [3, 0]"] ;
100 -> 101 ;
102 [label="年龄 <= 32.5\ngini = 0.457\nsamples = 48\nvalue = [31, 17]"] ;
100 -> 102 ;
103 [label="年龄 <= 31.097\ngini = 0.466\nsamples = 46\nvalue = [29, 17]"] ;
102 -> 103 ;
104 [label="gini = 0.5\nsamples = 4\nvalue = [2, 2]"] ;
103 -> 104 ;
105 [label="年龄 <= 31.597\ngini = 0.459\nsamples = 42\nvalue = [27, 15]"] ;
103 -> 105 ;
106 [label="gini = 0.455\nsamples = 40\nvalue = [26, 14]"] ;
105 -> 106 ;
107 [label="gini = 0.5\nsamples = 2\nvalue = [1, 1]"] ;
105 -> 107 ;
108 [label="gini = 0.0\nsamples = 2\nvalue = [2, 0]"] ;
102 -> 108 ;
109 [label="年龄 <= 35.5\ngini = 0.486\nsamples = 12\nvalue = [5, 7]"] ;
87 -> 109 ;
110 [label="gini = 0.0\nsamples = 2\nvalue = [0, 2]"] ;
109 -> 110 ;
111 [label="年龄 <= 36.5\ngini = 0.5\nsamples = 10\nvalue = [5, 5]"] ;
109 -> 111 ;
112 [label="gini = 0.48\nsamples = 5\nvalue = [2, 3]"] ;
111 -> 112 ;
113 [label="年龄 <= 37.5\ngini = 0.48\nsamples = 5\nvalue = [3, 2]"] ;
111 -> 113 ;
114 [label="gini = 0.444\nsamples = 3\nvalue = [2, 1]"] ;
113 -> 114 ;
115 [label="gini = 0.5\nsamples = 2\nvalue = [1, 1]"] ;
113 -> 115 ;
116 [label="年龄 <= 41.5\ngini = 0.375\nsamples = 12\nvalue = [9, 3]"] ;
86 -> 116 ;
117 [label="gini = 0.0\nsamples = 5\nvalue = [5, 0]"] ;
116 -> 117 ;
118 [label="年龄 <= 43.0\ngini = 0.49\nsamples = 7\nvalue = [4, 3]"] ;
116 -> 118 ;
119 [label="gini = 0.444\nsamples = 3\nvalue = [2, 1]"] ;
118 -> 119 ;
120 [label="年龄 <= 44.5\ngini = 0.5\nsamples = 4\nvalue = [2, 2]"] ;
118 -> 120 ;
121 [label="gini = 0.0\nsamples = 1\nvalue = [0, 1]"] ;
120 -> 121 ;
122 [label="gini = 0.444\nsamples = 3\nvalue = [2, 1]"] ;
120 -> 122 ;
123 [label="gini = 0.0\nsamples = 8\nvalue = [8, 0]"] ;
79 -> 123 ;
124 [label="年龄 <= 49.5\ngini = 0.473\nsamples = 13\nvalue = [5, 8]"] ;
78 -> 124 ;
125 [label="年龄 <= 48.5\ngini = 0.278\nsamples = 6\nvalue = [1, 5]"] ;
124 -> 125 ;
126 [label="gini = 0.5\nsamples = 2\nvalue = [1, 1]"] ;
125 -> 126 ;
127 [label="gini = 0.0\nsamples = 4\nvalue = [0, 4]"] ;
125 -> 127 ;
128 [label="年龄 <= 51.5\ngini = 0.49\nsamples = 7\nvalue = [4, 3]"] ;
124 -> 128 ;
129 [label="gini = 0.0\nsamples = 3\nvalue = [3, 0]"] ;
128 -> 129 ;
130 [label="年龄 <= 53.0\ngini = 0.375\nsamples = 4\nvalue = [1, 3]"] ;
128 -> 130 ;
131 [label="gini = 0.0\nsamples = 1\nvalue = [0, 1]"] ;
130 -> 131 ;
132 [label="gini = 0.444\nsamples = 3\nvalue = [1, 2]"] ;
130 -> 132 ;
133 [label="年龄 <= 60.5\ngini = 0.1\nsamples = 19\nvalue = [18, 1]"] ;
77 -> 133 ;
134 [label="年龄 <= 59.0\ngini = 0.219\nsamples = 8\nvalue = [7, 1]"] ;
133 -> 134 ;
135 [label="gini = 0.0\nsamples = 6\nvalue = [6, 0]"] ;
134 -> 135 ;
136 [label="gini = 0.5\nsamples = 2\nvalue = [1, 1]"] ;
134 -> 136 ;
137 [label="gini = 0.0\nsamples = 11\nvalue = [11, 0]"] ;
133 -> 137 ;
138 [label="pclass=3rd <= 0.5\ngini = 0.452\nsamples = 339\nvalue = [117, 222]"] ;
0 -> 138 [labeldistance=2.5, labelangle=-45, headlabel="False"] ;
139 [label="年龄 <= 44.5\ngini = 0.16\nsamples = 183\nvalue = [16, 167]"] ;
138 -> 139 ;
140 [label="年龄 <= 2.5\ngini = 0.188\nsamples = 152\nvalue = [16, 136]"] ;
139 -> 140 ;
141 [label="pclass=2nd <= 0.5\ngini = 0.444\nsamples = 3\nvalue = [1, 2]"] ;
140 -> 141 ;
142 [label="gini = 0.0\nsamples = 1\nvalue = [1, 0]"] ;
141 -> 142 ;
143 [label="gini = 0.0\nsamples = 2\nvalue = [0, 2]"] ;
141 -> 143 ;
144 [label="pclass=2nd <= 0.5\ngini = 0.181\nsamples = 149\nvalue = [15, 134]"] ;
140 -> 144 ;
145 [label="年龄 <= 24.5\ngini = 0.121\nsamples = 77\nvalue = [5, 72]"] ;
144 -> 145 ;
146 [label="gini = 0.0\nsamples = 19\nvalue = [0, 19]"] ;
145 -> 146 ;
147 [label="年龄 <= 25.5\ngini = 0.158\nsamples = 58\nvalue = [5, 53]"] ;
145 -> 147 ;
148 [label="gini = 0.0\nsamples = 1\nvalue = [1, 0]"] ;
147 -> 148 ;
149 [label="年龄 <= 36.5\ngini = 0.131\nsamples = 57\nvalue = [4, 53]"] ;
147 -> 149 ;
150 [label="年龄 <= 35.5\ngini = 0.159\nsamples = 46\nvalue = [4, 42]"] ;
149 -> 150 ;
151 [label="年龄 <= 31.097\ngini = 0.136\nsamples = 41\nvalue = [3, 38]"] ;
150 -> 151 ;
152 [label="gini = 0.0\nsamples = 5\nvalue = [0, 5]"] ;
151 -> 152 ;
153 [label="年龄 <= 32.097\ngini = 0.153\nsamples = 36\nvalue = [3, 33]"] ;
151 -> 153 ;
154 [label="gini = 0.17\nsamples = 32\nvalue = [3, 29]"] ;
153 -> 154 ;
155 [label="gini = 0.0\nsamples = 4\nvalue = [0, 4]"] ;
153 -> 155 ;
156 [label="gini = 0.32\nsamples = 5\nvalue = [1, 4]"] ;
150 -> 156 ;
157 [label="gini = 0.0\nsamples = 11\nvalue = [0, 11]"] ;
149 -> 157 ;
158 [label="年龄 <= 43.0\ngini = 0.239\nsamples = 72\nvalue = [10, 62]"] ;
144 -> 158 ;
159 [label="年龄 <= 17.5\ngini = 0.221\nsamples = 71\nvalue = [9, 62]"] ;
158 -> 159 ;
160 [label="gini = 0.0\nsamples = 9\nvalue = [0, 9]"] ;
159 -> 160 ;
161 [label="年龄 <= 27.5\ngini = 0.248\nsamples = 62\nvalue = [9, 53]"] ;
159 -> 161 ;
162 [label="年龄 <= 25.5\ngini = 0.351\nsamples = 22\nvalue = [5, 17]"] ;
161 -> 162 ;
163 [label="年龄 <= 22.5\ngini = 0.266\nsamples = 19\nvalue = [3, 16]"] ;
162 -> 163 ;
164 [label="年龄 <= 21.5\ngini = 0.355\nsamples = 13\nvalue = [3, 10]"] ;
163 -> 164 ;
165 [label="年龄 <= 18.5\ngini = 0.18\nsamples = 10\nvalue = [1, 9]"] ;
164 -> 165 ;
166 [label="gini = 0.444\nsamples = 3\nvalue = [1, 2]"] ;
165 -> 166 ;
167 [label="gini = 0.0\nsamples = 7\nvalue = [0, 7]"] ;
165 -> 167 ;
168 [label="gini = 0.444\nsamples = 3\nvalue = [2, 1]"] ;
164 -> 168 ;
169 [label="gini = 0.0\nsamples = 6\nvalue = [0, 6]"] ;
163 -> 169 ;
170 [label="年龄 <= 26.5\ngini = 0.444\nsamples = 3\nvalue = [2, 1]"] ;
162 -> 170 ;
171 [label="gini = 0.5\nsamples = 2\nvalue = [1, 1]"] ;
170 -> 171 ;
172 [label="gini = 0.0\nsamples = 1\nvalue = [1, 0]"] ;
170 -> 172 ;
173 [label="年龄 <= 31.097\ngini = 0.18\nsamples = 40\nvalue = [4, 36]"] ;
161 -> 173 ;
174 [label="gini = 0.0\nsamples = 8\nvalue = [0, 8]"] ;
173 -> 174 ;
175 [label="年龄 <= 31.597\ngini = 0.219\nsamples = 32\nvalue = [4, 28]"] ;
173 -> 175 ;
176 [label="gini = 0.291\nsamples = 17\nvalue = [3, 14]"] ;
175 -> 176 ;
177 [label="年龄 <= 37.0\ngini = 0.124\nsamples = 15\nvalue = [1, 14]"] ;
175 -> 177 ;
178 [label="gini = 0.0\nsamples = 10\nvalue = [0, 10]"] ;
177 -> 178 ;
179 [label="年龄 <= 39.0\ngini = 0.32\nsamples = 5\nvalue = [1, 4]"] ;
177 -> 179 ;
180 [label="gini = 0.0\nsamples = 1\nvalue = [1, 0]"] ;
179 -> 180 ;
181 [label="gini = 0.0\nsamples = 4\nvalue = [0, 4]"] ;
179 -> 181 ;
182 [label="gini = 0.0\nsamples = 1\nvalue = [1, 0]"] ;
158 -> 182 ;
183 [label="gini = 0.0\nsamples = 31\nvalue = [0, 31]"] ;
139 -> 183 ;
184 [label="年龄 <= 5.5\ngini = 0.457\nsamples = 156\nvalue = [101, 55]"] ;
138 -> 184 ;
185 [label="年龄 <= 2.5\ngini = 0.375\nsamples = 4\nvalue = [1, 3]"] ;
184 -> 185 ;
186 [label="年龄 <= 1.083\ngini = 0.5\nsamples = 2\nvalue = [1, 1]"] ;
185 -> 186 ;
187 [label="gini = 0.0\nsamples = 1\nvalue = [0, 1]"] ;
186 -> 187 ;
188 [label="gini = 0.0\nsamples = 1\nvalue = [1, 0]"] ;
186 -> 188 ;
189 [label="gini = 0.0\nsamples = 2\nvalue = [0, 2]"] ;
185 -> 189 ;
190 [label="年龄 <= 13.0\ngini = 0.45\nsamples = 152\nvalue = [100, 52]"] ;
184 -> 190 ;
191 [label="gini = 0.0\nsamples = 5\nvalue = [5, 0]"] ;
190 -> 191 ;
192 [label="年龄 <= 30.597\ngini = 0.457\nsamples = 147\nvalue = [95, 52]"] ;
190 -> 192 ;
193 [label="年龄 <= 15.5\ngini = 0.494\nsamples = 18\nvalue = [8, 10]"] ;
192 -> 193 ;
194 [label="gini = 0.0\nsamples = 1\nvalue = [0, 1]"] ;
193 -> 194 ;
195 [label="年龄 <= 22.0\ngini = 0.498\nsamples = 17\nvalue = [8, 9]"] ;
193 -> 195 ;
196 [label="年龄 <= 19.5\ngini = 0.497\nsamples = 13\nvalue = [7, 6]"] ;
195 -> 196 ;
197 [label="年龄 <= 18.5\ngini = 0.496\nsamples = 11\nvalue = [5, 6]"] ;
196 -> 197 ;
198 [label="年龄 <= 16.5\ngini = 0.5\nsamples = 10\nvalue = [5, 5]"] ;
197 -> 198 ;
199 [label="gini = 0.444\nsamples = 3\nvalue = [1, 2]"] ;
198 -> 199 ;
200 [label="年龄 <= 17.5\ngini = 0.49\nsamples = 7\nvalue = [4, 3]"] ;
198 -> 200 ;
201 [label="gini = 0.5\nsamples = 2\nvalue = [1, 1]"] ;
200 -> 201 ;
202 [label="gini = 0.48\nsamples = 5\nvalue = [3, 2]"] ;
200 -> 202 ;
203 [label="gini = 0.0\nsamples = 1\nvalue = [0, 1]"] ;
197 -> 203 ;
204 [label="gini = 0.0\nsamples = 2\nvalue = [2, 0]"] ;
196 -> 204 ;
205 [label="年龄 <= 23.5\ngini = 0.375\nsamples = 4\nvalue = [1, 3]"] ;
195 -> 205 ;
206 [label="gini = 0.0\nsamples = 1\nvalue = [0, 1]"] ;
205 -> 206 ;
207 [label="年龄 <= 27.0\ngini = 0.444\nsamples = 3\nvalue = [1, 2]"] ;
205 -> 207 ;
208 [label="gini = 0.5\nsamples = 2\nvalue = [1, 1]"] ;
207 -> 208 ;
209 [label="gini = 0.0\nsamples = 1\nvalue = [0, 1]"] ;
207 -> 209 ;
210 [label="年龄 <= 32.5\ngini = 0.439\nsamples = 129\nvalue = [87, 42]"] ;
192 -> 210 ;
211 [label="年龄 <= 31.597\ngini = 0.428\nsamples = 116\nvalue = [80, 36]"] ;
210 -> 211 ;
212 [label="gini = 0.43\nsamples = 115\nvalue = [79, 36]"] ;
211 -> 212 ;
213 [label="gini = 0.0\nsamples = 1\nvalue = [1, 0]"] ;
211 -> 213 ;
214 [label="年龄 <= 36.5\ngini = 0.497\nsamples = 13\nvalue = [7, 6]"] ;
210 -> 214 ;
215 [label="gini = 0.0\nsamples = 4\nvalue = [0, 4]"] ;
214 -> 215 ;
216 [label="年龄 <= 37.5\ngini = 0.346\nsamples = 9\nvalue = [7, 2]"] ;
214 -> 216 ;
217 [label="gini = 0.0\nsamples = 1\nvalue = [1, 0]"] ;
216 -> 217 ;
218 [label="年龄 <= 38.5\ngini = 0.375\nsamples = 8\nvalue = [6, 2]"] ;
216 -> 218 ;
219 [label="gini = 0.5\nsamples = 2\nvalue = [1, 1]"] ;
218 -> 219 ;
220 [label="年龄 <= 44.0\ngini = 0.278\nsamples = 6\nvalue = [5, 1]"] ;
218 -> 220 ;
221 [label="gini = 0.0\nsamples = 3\nvalue = [3, 0]"] ;
220 -> 221 ;
222 [label="年龄 <= 46.5\ngini = 0.444\nsamples = 3\nvalue = [2, 1]"] ;
220 -> 222 ;
223 [label="gini = 0.5\nsamples = 2\nvalue = [1, 1]"] ;
222 -> 223 ;
224 [label="gini = 0.0\nsamples = 1\nvalue = [1, 0]"] ;
222 -> 224 ;
}